weight:  [[ 8.64300793e+00  1.82534929e-01 -5.75157080e+00  4.36338342e+00
   5.19289330e-01  1.11049279e+01 -2.73602104e+00  4.85773575e+00
  -2.36848927e-01]
 [-3.31915224e+00 -1.34970073e+00 -4.59347124e-01  5.82373299e-01
  -2.00242763e+00 -3.66132425e+00 -2.24014314e+00 -3.16704160e-01
   2.03415567e+00]
 [-3.83483542e-01 -3.68803347e-01 -3.33178753e-01 -2.97922620e-01
  -3.40187739e-01 -3.72616673e-01 -3.64584757e-01 -2.15405397e-01
  -2.46201870e-01]
 [-1.55680893e+00 -1.52651080e+00 -5.47491550e-01 -2.20994851e-01
  -3.38093684e-01 -1.44158476e+00 -8.43459009e-01 -1.09142334e-01
  -4.12006914e-02]
 [-8.20131202e-01 -6.21953696e-01 -2.09332445e+00 -3.63813364e+00
  -3.35923282e-01 -1.15617858e+00 -1.23517167e+00 -1.76371624e+00
  -2.57515585e+00]
 [-2.20153376e+00 -1.61229951e+00 -1.15005393e+00  1.61678581e-01
  -1.47103625e+00 -9.97138937e-01 -2.15733715e+00 -1.06063788e-01
   5.58746816e-01]
 [-3.45644607e+00 -9.81773508e-01  1.46814192e-01 -7.97867929e-01
  -1.20943839e+00 -4.00456250e+00 -5.63827584e-01 -1.77396905e+00
   9.21338527e-01]
 [-3.73375805e-01 -3.39109772e-01 -2.93503720e-01 -2.94272133e-01
  -3.05130737e-01 -3.66775431e-01 -3.13024648e-01 -2.63647748e-01
  -2.17041735e-01]
 [-1.40544838e+00 -1.18647646e+00 -4.15902512e-01 -3.60660239e-01
  -2.80161309e-01 -1.34649639e+00 -6.00822005e-01 -3.33761410e-01
  -1.47248440e-01]
 [-1.24752419e+00 -6.24594217e-01 -1.09544728e+00 -2.65600129e+00
  -2.59363140e-01 -1.51811568e+00 -4.67195142e-01 -1.87469793e+00
  -1.89371301e+00]
 [-2.30114470e+00 -1.47301971e+00 -7.97988726e-01 -4.59754824e-01
  -1.17093900e+00 -1.51475180e+00 -1.39043669e+00 -6.63148065e-01
   1.39861441e-01]
 [-4.26337788e-01 -4.77381488e-01 -4.87788175e-01 -5.26977967e-01
  -6.04527077e-01 -4.26490466e-01 -5.13491357e-01 -3.95311252e-01
  -5.04347838e-01]
 [-5.76247264e+00 -7.43328698e+00  4.02822078e-01  2.23078603e+00
   4.91445282e-01 -4.51476503e+00  1.01385478e+00  4.86864343e+00
  -1.78157827e+00]
 [ 1.66657001e+00  7.63360014e-01 -1.10240522e+00 -3.18334285e+00
   7.79864725e-01  1.34884436e+00  4.80064628e-01 -1.10986100e+00
  -3.36925560e+00]
 [-8.75571723e-01  9.44182254e-03 -3.31228909e+00  1.39007902e+00
  -4.54423628e+00  3.65084180e+00 -4.09917441e+00 -1.82440776e+00
   1.61469999e-01]
 [ 4.01874309e-01  3.47186882e-01  7.79609348e-01  8.16703144e-01
   8.17034444e-01  2.95009442e-01  7.82089210e-01  7.09492194e-01
   6.19772076e-01]
 [ 5.60781218e-01  5.59589961e-01  2.57683684e-01  3.15342308e-02
   5.86581087e-01  5.54744147e-01  5.98219070e-01  2.32179387e-01
  -8.76313706e-02]
 [ 9.18822850e-01  7.88907209e-01  9.58577257e-01  1.42865177e+00
   1.51435056e+00  7.86049413e-01  7.44473830e-01  3.01784377e-01
   1.20972702e+00]
 [ 1.64115591e+00  1.70977317e+00 -2.22536450e-02 -8.54045470e-01
   3.17808602e-01  1.44353427e+00  6.86652918e-01 -5.12564623e-01
  -7.34175513e-01]
 [ 2.88709978e+00  2.48280359e+00 -2.76164121e+00 -6.38483429e-01
  -2.37468404e+00  4.30298502e+00 -2.31713183e+00 -4.13500521e+00
   2.75609146e-01]
 [-1.70912847e+00 -1.36259856e+00  5.92196733e-02  2.45927785e+00
  -1.26471762e+00 -4.36322522e-01 -1.40184536e+00  1.10110110e+00
   2.37658025e+00]]
bias:  [-1.52686139  1.68101968  1.26441546  1.52895913  2.54934393  1.53701916
  1.37569165  1.14598519  1.24374119  1.70099909  1.36814865  2.32817562
  6.31727812  1.02657807  2.85964551 -3.17731957 -1.64663785 -5.55135887
 -1.08461522 -1.12422445 -0.19777216]
